<?xml version="1.0"?>
<opencv_storage>
<cascade>
  <stageType>BOOST</stageType>
  <featureType>HAAR</featureType>
  <height>67</height>
  <width>37</width>
  <stageParams>
    <boostType>GAB</boostType>
    <minHitRate>9.9500000476837158e-01</minHitRate>
    <maxFalseAlarm>5.0000000000000000e-01</maxFalseAlarm>
    <weightTrimRate>9.4999998807907104e-01</weightTrimRate>
    <maxDepth>1</maxDepth>
    <maxWeakCount>100</maxWeakCount></stageParams>
  <featureParams>
    <maxCatCount>0</maxCatCount>
    <featSize>1</featSize>
    <mode>BASIC</mode></featureParams>
  <stageNum>11</stageNum>
  <stages>
    <!-- stage 0 -->
    <_>
      <maxWeakCount>2</maxWeakCount>
      <stageThreshold>-8.1694088876247406e-02</stageThreshold>
      <weakClassifiers>
        <_>
          <internalNodes>
            0 -1 10 -1.8940482288599014e-02</internalNodes>
          <leafValues>
            9.0361446142196655e-01 -9.9416911602020264e-01</leafValues></_>
        <_>
          <internalNodes>
            0 -1 0 2.7494082227349281e-02</internalNodes>
          <leafValues>
            -9.7213178873062134e-01 9.1247498989105225e-01</leafValues></_></weakClassifiers></_>
    <!-- stage 1 -->
    <_>
      <maxWeakCount>2</maxWeakCount>
      <stageThreshold>-1.5206117928028107e-01</stageThreshold>
      <weakClassifiers>
        <_>
          <internalNodes>
            0 -1 21 -5.1228769123554230e-02</internalNodes>
          <leafValues>
            9.0849673748016357e-01 -9.2696630954742432e-01</leafValues></_>
        <_>
          <internalNodes>
            0 -1 13 -8.1248283386230469e-03</internalNodes>
          <leafValues>
            7.7490514516830444e-01 -9.8306649923324585e-01</leafValues></_></weakClassifiers></_>
    <!-- stage 2 -->
    <_>
      <maxWeakCount>1</maxWeakCount>
      <stageThreshold>9.7515529394149780e-01</stageThreshold>
      <weakClassifiers>
        <_>
          <internalNodes>
            0 -1 7 5.9336453676223755e-02</internalNodes>
          <leafValues>
            -1. 9.7515529394149780e-01</leafValues></_></weakClassifiers></_>
    <!-- stage 3 -->
    <_>
      <maxWeakCount>3</maxWeakCount>
      <stageThreshold>-9.5756489038467407e-01</stageThreshold>
      <weakClassifiers>
        <_>
          <internalNodes>
            0 -1 25 -4.5422457158565521e-02</internalNodes>
          <leafValues>
            9.3243241310119629e-01 -9.1135734319686890e-01</leafValues></_>
        <_>
          <internalNodes>
            0 -1 12 -2.8798650950193405e-02</internalNodes>
          <leafValues>
            8.1355476379394531e-01 -9.1697478294372559e-01</leafValues></_>
        <_>
          <internalNodes>
            0 -1 6 -4.4153094291687012e-02</internalNodes>
          <leafValues>
            8.8985794782638550e-01 -8.5976231098175049e-01</leafValues></_></weakClassifiers></_>
    <!-- stage 4 -->
    <_>
      <maxWeakCount>2</maxWeakCount>
      <stageThreshold>-2.5825706124305725e-01</stageThreshold>
      <weakClassifiers>
        <_>
          <internalNodes>
            0 -1 4 3.2196259126067162e-03</internalNodes>
          <leafValues>
            -8.9625358581542969e-01 7.4074071645736694e-01</leafValues></_>
        <_>
          <internalNodes>
            0 -1 8 -3.2119631767272949e-02</internalNodes>
          <leafValues>
            6.3799655437469482e-01 -9.6955877542495728e-01</leafValues></_></weakClassifiers></_>
    <!-- stage 5 -->
    <_>
      <maxWeakCount>3</maxWeakCount>
      <stageThreshold>-7.9665845632553101e-01</stageThreshold>
      <weakClassifiers>
        <_>
          <internalNodes>
            0 -1 18 -6.5792098641395569e-02</internalNodes>
          <leafValues>
            9.5238095521926880e-01 -8.1201046705245972e-01</leafValues></_>
        <_>
          <internalNodes>
            0 -1 14 3.9903493598103523e-03</internalNodes>
          <leafValues>
            -7.8044384717941284e-01 8.5710442066192627e-01</leafValues></_>
        <_>
          <internalNodes>
            0 -1 9 -3.9567209780216217e-02</internalNodes>
          <leafValues>
            8.1634652614593506e-01 -8.4175246953964233e-01</leafValues></_></weakClassifiers></_>
    <!-- stage 6 -->
    <_>
      <maxWeakCount>3</maxWeakCount>
      <stageThreshold>-8.6112153530120850e-01</stageThreshold>
      <weakClassifiers>
        <_>
          <internalNodes>
            0 -1 11 1.5715878456830978e-02</internalNodes>
          <leafValues>
            -8.5483872890472412e-01 9.2700731754302979e-01</leafValues></_>
        <_>
          <internalNodes>
            0 -1 17 -4.9048818647861481e-02</internalNodes>
          <leafValues>
            9.7169047594070435e-01 -7.0975339412689209e-01</leafValues></_>
        <_>
          <internalNodes>
            0 -1 20 1.2414833530783653e-02</internalNodes>
          <leafValues>
            -9.4998425245285034e-01 7.0347058773040771e-01</leafValues></_></weakClassifiers></_>
    <!-- stage 7 -->
    <_>
      <maxWeakCount>3</maxWeakCount>
      <stageThreshold>-8.0100142955780029e-01</stageThreshold>
      <weakClassifiers>
        <_>
          <internalNodes>
            0 -1 5 2.4276629090309143e-02</internalNodes>
          <leafValues>
            -8.0526316165924072e-01 8.9147287607192993e-01</leafValues></_>
        <_>
          <internalNodes>
            0 -1 22 3.8325197994709015e-02</internalNodes>
          <leafValues>
            -7.7253633737564087e-01 8.1911283731460571e-01</leafValues></_>
        <_>
          <internalNodes>
            0 -1 3 5.3672380745410919e-02</internalNodes>
          <leafValues>
            -7.3531848192214966e-01 7.7679800987243652e-01</leafValues></_></weakClassifiers></_>
    <!-- stage 8 -->
    <_>
      <maxWeakCount>2</maxWeakCount>
      <stageThreshold>-4.3914459645748138e-02</stageThreshold>
      <weakClassifiers>
        <_>
          <internalNodes>
            0 -1 1 -2.4649775587022305e-03</internalNodes>
          <leafValues>
            9.5031058788299561e-01 -9.8850572109222412e-01</leafValues></_>
        <_>
          <internalNodes>
            0 -1 24 5.3484337404370308e-03</internalNodes>
          <leafValues>
            -9.8879492282867432e-01 9.4459128379821777e-01</leafValues></_></weakClassifiers></_>
    <!-- stage 9 -->
    <_>
      <maxWeakCount>3</maxWeakCount>
      <stageThreshold>-7.6867455244064331e-01</stageThreshold>
      <weakClassifiers>
        <_>
          <internalNodes>
            0 -1 19 -4.7114953398704529e-02</internalNodes>
          <leafValues>
            9.4074076414108276e-01 -8.5026735067367554e-01</leafValues></_>
        <_>
          <internalNodes>
            0 -1 23 1.5335601754486561e-02</internalNodes>
          <leafValues>
            -7.1086138486862183e-01 9.2722153663635254e-01</leafValues></_>
        <_>
          <internalNodes>
            0 -1 15 -3.2526999711990356e-03</internalNodes>
          <leafValues>
            7.9245424270629883e-01 -8.1955254077911377e-01</leafValues></_></weakClassifiers></_>
    <!-- stage 10 -->
    <_>
      <maxWeakCount>2</maxWeakCount>
      <stageThreshold>1.6997167840600014e-02</stageThreshold>
      <weakClassifiers>
        <_>
          <internalNodes>
            0 -1 2 -4.0855805855244398e-04</internalNodes>
          <leafValues>
            1. -9.8300284147262573e-01</leafValues></_>
        <_>
          <internalNodes>
            0 -1 16 7.3178450111299753e-04</internalNodes>
          <leafValues>
            1. -9.7229915857315063e-01</leafValues></_></weakClassifiers></_></stages>
  <features>
    <_>
      <rects>
        <_>
          0 16 10 40 -1.</_>
        <_>
          0 16 5 20 2.</_>
        <_>
          5 36 5 20 2.</_></rects>
      <tilted>0</tilted></_>
    <_>
      <rects>
        <_>
          0 24 14 4 -1.</_>
        <_>
          7 24 7 4 2.</_></rects>
      <tilted>0</tilted></_>
    <_>
      <rects>
        <_>
          0 27 27 1 -1.</_>
        <_>
          9 27 9 1 3.</_></rects>
      <tilted>0</tilted></_>
    <_>
      <rects>
        <_>
          0 42 21 20 -1.</_>
        <_>
          7 42 7 20 3.</_></rects>
      <tilted>0</tilted></_>
    <_>
      <rects>
        <_>
          0 44 8 7 -1.</_>
        <_>
          4 44 4 7 2.</_></rects>
      <tilted>0</tilted></_>
    <_>
      <rects>
        <_>
          1 8 6 52 -1.</_>
        <_>
          1 8 3 26 2.</_>
        <_>
          4 34 3 26 2.</_></rects>
      <tilted>0</tilted></_>
    <_>
      <rects>
        <_>
          1 14 18 22 -1.</_>
        <_>
          7 14 6 22 3.</_></rects>
      <tilted>0</tilted></_>
    <_>
      <rects>
        <_>
          3 27 27 24 -1.</_>
        <_>
          3 35 27 8 3.</_></rects>
      <tilted>0</tilted></_>
    <_>
      <rects>
        <_>
          6 2 26 60 -1.</_>
        <_>
          6 22 26 20 3.</_></rects>
      <tilted>0</tilted></_>
    <_>
      <rects>
        <_>
          7 13 16 52 -1.</_>
        <_>
          7 13 8 26 2.</_>
        <_>
          15 39 8 26 2.</_></rects>
      <tilted>0</tilted></_>
    <_>
      <rects>
        <_>
          8 44 21 8 -1.</_>
        <_>
          15 44 7 8 3.</_></rects>
      <tilted>0</tilted></_>
    <_>
      <rects>
        <_>
          9 13 1 50 -1.</_>
        <_>
          9 38 1 25 2.</_></rects>
      <tilted>0</tilted></_>
    <_>
      <rects>
        <_>
          9 51 21 15 -1.</_>
        <_>
          16 51 7 15 3.</_></rects>
      <tilted>0</tilted></_>
    <_>
      <rects>
        <_>
          10 0 8 18 -1.</_>
        <_>
          10 6 8 6 3.</_></rects>
      <tilted>0</tilted></_>
    <_>
      <rects>
        <_>
          10 43 9 14 -1.</_>
        <_>
          10 50 9 7 2.</_></rects>
      <tilted>0</tilted></_>
    <_>
      <rects>
        <_>
          11 17 4 34 -1.</_>
        <_>
          11 17 2 17 2.</_>
        <_>
          13 34 2 17 2.</_></rects>
      <tilted>0</tilted></_>
    <_>
      <rects>
        <_>
          11 31 6 6 -1.</_>
        <_>
          11 31 3 3 2.</_>
        <_>
          14 34 3 3 2.</_></rects>
      <tilted>0</tilted></_>
    <_>
      <rects>
        <_>
          14 4 22 16 -1.</_>
        <_>
          14 4 11 8 2.</_>
        <_>
          25 12 11 8 2.</_></rects>
      <tilted>0</tilted></_>
    <_>
      <rects>
        <_>
          15 5 21 17 -1.</_>
        <_>
          22 5 7 17 3.</_></rects>
      <tilted>0</tilted></_>
    <_>
      <rects>
        <_>
          16 16 21 16 -1.</_>
        <_>
          23 16 7 16 3.</_></rects>
      <tilted>0</tilted></_>
    <_>
      <rects>
        <_>
          16 24 5 18 -1.</_>
        <_>
          16 33 5 9 2.</_></rects>
      <tilted>0</tilted></_>
    <_>
      <rects>
        <_>
          17 2 18 33 -1.</_>
        <_>
          23 2 6 33 3.</_></rects>
      <tilted>0</tilted></_>
    <_>
      <rects>
        <_>
          18 0 10 66 -1.</_>
        <_>
          18 0 5 33 2.</_>
        <_>
          23 33 5 33 2.</_></rects>
      <tilted>0</tilted></_>
    <_>
      <rects>
        <_>
          19 46 18 5 -1.</_>
        <_>
          25 46 6 5 3.</_></rects>
      <tilted>0</tilted></_>
    <_>
      <rects>
        <_>
          27 5 8 32 -1.</_>
        <_>
          31 5 4 32 2.</_></rects>
      <tilted>0</tilted></_>
    <_>
      <rects>
        <_>
          27 8 10 54 -1.</_>
        <_>
          27 8 5 27 2.</_>
        <_>
          32 35 5 27 2.</_></rects>
      <tilted>0</tilted></_></features></cascade>
</opencv_storage>
