<?xml version="1.0"?>
<opencv_storage>
<stage12>
  <maxWeakCount>7</maxWeakCount>
  <stageThreshold>-1.3003917932510376e+00</stageThreshold>
  <weakClassifiers>
    <_>
      <internalNodes>
        0 -1 192767 -6.1272569000720978e-03</internalNodes>
      <leafValues>
        3.4693878889083862e-01 -6.8571430444717407e-01</leafValues></_>
    <_>
      <internalNodes>
        0 -1 254373 -2.2061651572585106e-02</internalNodes>
      <leafValues>
        6.3442599773406982e-01 -4.4921624660491943e-01</leafValues></_>
    <_>
      <internalNodes>
        0 -1 165211 3.6109352950006723e-03</internalNodes>
      <leafValues>
        3.1786164641380310e-01 -8.2361018657684326e-01</leafValues></_>
    <_>
      <internalNodes>
        0 -1 533041 -1.8214166630059481e-03</internalNodes>
      <leafValues>
        5.3947621583938599e-01 -4.9458357691764832e-01</leafValues></_>
    <_>
      <internalNodes>
        0 -1 551178 -4.6672825701534748e-03</internalNodes>
      <leafValues>
        6.4226835966110229e-01 -4.6100026369094849e-01</leafValues></_>
    <_>
      <internalNodes>
        0 -1 575329 3.1596751068718731e-04</internalNodes>
      <leafValues>
        3.6834043264389038e-01 -8.5677337646484375e-01</leafValues></_>
    <_>
      <internalNodes>
        0 -1 452 -4.2798504000529647e-04</internalNodes>
      <leafValues>
        -8.0829417705535889e-01 3.3053004741668701e-01</leafValues></_></weakClassifiers></stage12>
</opencv_storage>
