<?xml version="1.0"?>
<opencv_storage>
<stage6>
  <maxWeakCount>5</maxWeakCount>
  <stageThreshold>-1.4806367158889771e+00</stageThreshold>
  <weakClassifiers>
    <_>
      <internalNodes>
        0 -1 288939 1.2134943157434464e-02</internalNodes>
      <leafValues>
        -5.1030927896499634e-01 8.4090906381607056e-01</leafValues></_>
    <_>
      <internalNodes>
        0 -1 529559 1.8402766727376729e-05</internalNodes>
      <leafValues>
        -6.9590264558792114e-01 4.7072750329971313e-01</leafValues></_>
    <_>
      <internalNodes>
        0 -1 26771 -2.8864569962024689e-02</internalNodes>
      <leafValues>
        5.9438395500183105e-01 -5.5208212137222290e-01</leafValues></_>
    <_>
      <internalNodes>
        0 -1 400530 -1.2692961841821671e-02</internalNodes>
      <leafValues>
        9.1587769985198975e-01 -4.2459690570831299e-01</leafValues></_>
    <_>
      <internalNodes>
        0 -1 134064 -1.7665577615844086e-05</internalNodes>
      <leafValues>
        5.3352111577987671e-01 -6.3822031021118164e-01</leafValues></_></weakClassifiers></stage6>
</opencv_storage>
