<?xml version="1.0"?>
<opencv_storage>
<cascade>
  <stageType>BOOST</stageType>
  <featureType>HAAR</featureType>
  <height>32</height>
  <width>32</width>
  <stageParams>
    <boostType>GAB</boostType>
    <minHitRate>9.9500000476837158e-01</minHitRate>
    <maxFalseAlarm>5.0000000000000000e-01</maxFalseAlarm>
    <weightTrimRate>9.4999998807907104e-01</weightTrimRate>
    <maxDepth>1</maxDepth>
    <maxWeakCount>100</maxWeakCount></stageParams>
  <featureParams>
    <maxCatCount>0</maxCatCount>
    <featSize>1</featSize>
    <mode>BASIC</mode></featureParams>
  <stageNum>13</stageNum>
  <stages>
    <!-- stage 0 -->
    <_>
      <maxWeakCount>2</maxWeakCount>
      <stageThreshold>-1.0303054749965668e-01</stageThreshold>
      <weakClassifiers>
        <_>
          <internalNodes>
            0 -1 24 -5.0619032233953476e-02</internalNodes>
          <leafValues>
            8.8349515199661255e-01 -9.7979795932769775e-01</leafValues></_>
        <_>
          <internalNodes>
            0 -1 1 -3.5908263176679611e-02</internalNodes>
          <leafValues>
            8.8050174713134766e-01 -9.8652571439743042e-01</leafValues></_></weakClassifiers></_>
    <!-- stage 1 -->
    <_>
      <maxWeakCount>2</maxWeakCount>
      <stageThreshold>-7.5200587511062622e-02</stageThreshold>
      <weakClassifiers>
        <_>
          <internalNodes>
            0 -1 11 -1.1507377028465271e-01</internalNodes>
          <leafValues>
            9.2079210281372070e-01 -9.7993308305740356e-01</leafValues></_>
        <_>
          <internalNodes>
            0 -1 3 -8.9692704379558563e-02</internalNodes>
          <leafValues>
            9.0473252534866333e-01 -9.7356003522872925e-01</leafValues></_></weakClassifiers></_>
    <!-- stage 2 -->
    <_>
      <maxWeakCount>2</maxWeakCount>
      <stageThreshold>-1.7982730269432068e-01</stageThreshold>
      <weakClassifiers>
        <_>
          <internalNodes>
            0 -1 32 -4.8998030833899975e-03</internalNodes>
          <leafValues>
            8.9189189672470093e-01 -8.1595093011856079e-01</leafValues></_>
        <_>
          <internalNodes>
            0 -1 7 -2.6309330016374588e-02</internalNodes>
          <leafValues>
            6.3612359762191772e-01 -9.6631830930709839e-01</leafValues></_></weakClassifiers></_>
    <!-- stage 3 -->
    <_>
      <maxWeakCount>3</maxWeakCount>
      <stageThreshold>-1.1061209440231323e+00</stageThreshold>
      <weakClassifiers>
        <_>
          <internalNodes>
            0 -1 12 -4.3913401663303375e-02</internalNodes>
          <leafValues>
            6.3793104887008667e-01 -9.6478873491287231e-01</leafValues></_>
        <_>
          <internalNodes>
            0 -1 18 -1.1790252290666103e-02</internalNodes>
          <leafValues>
            8.7806928157806396e-01 -7.9466909170150757e-01</leafValues></_>
        <_>
          <internalNodes>
            0 -1 26 -2.8090078383684158e-02</internalNodes>
          <leafValues>
            6.5333688259124756e-01 -8.7436681985855103e-01</leafValues></_></weakClassifiers></_>
    <!-- stage 4 -->
    <_>
      <maxWeakCount>3</maxWeakCount>
      <stageThreshold>-1.0013670921325684e+00</stageThreshold>
      <weakClassifiers>
        <_>
          <internalNodes>
            0 -1 27 4.7939568758010864e-02</internalNodes>
          <leafValues>
            -8.7205386161804199e-01 5.7281553745269775e-01</leafValues></_>
        <_>
          <internalNodes>
            0 -1 21 -2.3162649013102055e-03</internalNodes>
          <leafValues>
            7.8844249248504639e-01 -7.6458305120468140e-01</leafValues></_>
        <_>
          <internalNodes>
            0 -1 0 -3.5049296915531158e-02</internalNodes>
          <leafValues>
            6.3526976108551025e-01 -8.8804608583450317e-01</leafValues></_></weakClassifiers></_>
    <!-- stage 5 -->
    <_>
      <maxWeakCount>2</maxWeakCount>
      <stageThreshold>-2.3185543715953827e-01</stageThreshold>
      <weakClassifiers>
        <_>
          <internalNodes>
            0 -1 25 2.1601778268814087e-01</internalNodes>
          <leafValues>
            -7.8658539056777954e-01 8.0555558204650879e-01</leafValues></_>
        <_>
          <internalNodes>
            0 -1 6 -3.2637108117341995e-02</internalNodes>
          <leafValues>
            5.5472993850708008e-01 -9.5612633228302002e-01</leafValues></_></weakClassifiers></_>
    <!-- stage 6 -->
    <_>
      <maxWeakCount>2</maxWeakCount>
      <stageThreshold>-4.9978762865066528e-01</stageThreshold>
      <weakClassifiers>
        <_>
          <internalNodes>
            0 -1 31 -1.9974201917648315e-02</internalNodes>
          <leafValues>
            3.9393940567970276e-01 -9.4029849767684937e-01</leafValues></_>
        <_>
          <internalNodes>
            0 -1 13 -1.3343608379364014e-01</internalNodes>
          <leafValues>
            4.4771212339401245e-01 -8.9372700452804565e-01</leafValues></_></weakClassifiers></_>
    <!-- stage 7 -->
    <_>
      <maxWeakCount>2</maxWeakCount>
      <stageThreshold>-5.0736683607101440e-01</stageThreshold>
      <weakClassifiers>
        <_>
          <internalNodes>
            0 -1 28 4.1288368403911591e-02</internalNodes>
          <leafValues>
            -8.8070178031921387e-01 4.4347825646400452e-01</leafValues></_>
        <_>
          <internalNodes>
            0 -1 15 8.1937022507190704e-02</internalNodes>
          <leafValues>
            -1. 3.7333491444587708e-01</leafValues></_></weakClassifiers></_>
    <!-- stage 8 -->
    <_>
      <maxWeakCount>4</maxWeakCount>
      <stageThreshold>-1.7245029211044312e+00</stageThreshold>
      <weakClassifiers>
        <_>
          <internalNodes>
            0 -1 29 -2.4158325046300888e-02</internalNodes>
          <leafValues>
            6.2886595726013184e-01 -8.6138612031936646e-01</leafValues></_>
        <_>
          <internalNodes>
            0 -1 10 -8.2093048840761185e-03</internalNodes>
          <leafValues>
            5.8139795064926147e-01 -8.5075712203979492e-01</leafValues></_>
        <_>
          <internalNodes>
            0 -1 20 -2.1083075553178787e-02</internalNodes>
          <leafValues>
            7.6494199037551880e-01 -6.5709108114242554e-01</leafValues></_>
        <_>
          <internalNodes>
            0 -1 30 -3.0278185382485390e-02</internalNodes>
          <leafValues>
            6.4473146200180054e-01 -8.5306614637374878e-01</leafValues></_></weakClassifiers></_>
    <!-- stage 9 -->
    <_>
      <maxWeakCount>4</maxWeakCount>
      <stageThreshold>-8.0104702711105347e-01</stageThreshold>
      <weakClassifiers>
        <_>
          <internalNodes>
            0 -1 4 -1.0818262584507465e-02</internalNodes>
          <leafValues>
            7.9710143804550171e-01 -7.7039277553558350e-01</leafValues></_>
        <_>
          <internalNodes>
            0 -1 5 -4.4877298176288605e-02</internalNodes>
          <leafValues>
            4.7873008251190186e-01 -9.3266373872756958e-01</leafValues></_>
        <_>
          <internalNodes>
            0 -1 23 2.2817760705947876e-02</internalNodes>
          <leafValues>
            -9.3173062801361084e-01 4.4964548945426941e-01</leafValues></_>
        <_>
          <internalNodes>
            0 -1 2 9.4378050416707993e-03</internalNodes>
          <leafValues>
            5.2940905094146729e-01 -9.5902985334396362e-01</leafValues></_></weakClassifiers></_>
    <!-- stage 10 -->
    <_>
      <maxWeakCount>2</maxWeakCount>
      <stageThreshold>-6.8293875455856323e-01</stageThreshold>
      <weakClassifiers>
        <_>
          <internalNodes>
            0 -1 22 8.0060306936502457e-04</internalNodes>
          <leafValues>
            1.7283950746059418e-01 -9.5798319578170776e-01</leafValues></_>
        <_>
          <internalNodes>
            0 -1 17 1.5944211554597132e-05</internalNodes>
          <leafValues>
            -8.5577827692031860e-01 4.8680919408798218e-01</leafValues></_></weakClassifiers></_>
    <!-- stage 11 -->
    <_>
      <maxWeakCount>3</maxWeakCount>
      <stageThreshold>-1.0830198526382446e+00</stageThreshold>
      <weakClassifiers>
        <_>
          <internalNodes>
            0 -1 9 7.3127802461385727e-03</internalNodes>
          <leafValues>
            -8.0722892284393311e-01 1.</leafValues></_>
        <_>
          <internalNodes>
            0 -1 16 4.4470034539699554e-02</internalNodes>
          <leafValues>
            6.1447066068649292e-01 -9.4175380468368530e-01</leafValues></_>
        <_>
          <internalNodes>
            0 -1 8 -2.0380392670631409e-03</internalNodes>
          <leafValues>
            7.3501580953598022e-01 -8.9026165008544922e-01</leafValues></_></weakClassifiers></_>
    <!-- stage 12 -->
    <_>
      <maxWeakCount>3</maxWeakCount>
      <stageThreshold>-9.4589883089065552e-01</stageThreshold>
      <weakClassifiers>
        <_>
          <internalNodes>
            0 -1 19 7.1254308568313718e-04</internalNodes>
          <leafValues>
            1. -9.9335545301437378e-01</leafValues></_>
        <_>
          <internalNodes>
            0 -1 19 7.1254308568313718e-04</internalNodes>
          <leafValues>
            1. -9.5254337787628174e-01</leafValues></_>
        <_>
          <internalNodes>
            0 -1 14 -7.3598260059952736e-03</internalNodes>
          <leafValues>
            1. -9.2698007822036743e-01</leafValues></_></weakClassifiers></_></stages>
  <features>
    <_>
      <rects>
        <_>
          0 0 20 10 -1.</_>
        <_>
          0 0 10 5 2.</_>
        <_>
          10 5 10 5 2.</_></rects>
      <tilted>0</tilted></_>
    <_>
      <rects>
        <_>
          1 6 30 2 -1.</_>
        <_>
          11 6 10 2 3.</_></rects>
      <tilted>0</tilted></_>
    <_>
      <rects>
        <_>
          2 5 24 17 -1.</_>
        <_>
          14 5 12 17 2.</_></rects>
      <tilted>0</tilted></_>
    <_>
      <rects>
        <_>
          2 23 30 5 -1.</_>
        <_>
          12 23 10 5 3.</_></rects>
      <tilted>0</tilted></_>
    <_>
      <rects>
        <_>
          3 12 6 10 -1.</_>
        <_>
          5 12 2 10 3.</_></rects>
      <tilted>0</tilted></_>
    <_>
      <rects>
        <_>
          4 5 27 3 -1.</_>
        <_>
          13 5 9 3 3.</_></rects>
      <tilted>0</tilted></_>
    <_>
      <rects>
        <_>
          4 21 12 8 -1.</_>
        <_>
          10 21 6 8 2.</_></rects>
      <tilted>0</tilted></_>
    <_>
      <rects>
        <_>
          5 7 12 20 -1.</_>
        <_>
          9 7 4 20 3.</_></rects>
      <tilted>0</tilted></_>
    <_>
      <rects>
        <_>
          5 7 8 4 -1.</_>
        <_>
          5 9 8 2 2.</_></rects>
      <tilted>0</tilted></_>
    <_>
      <rects>
        <_>
          6 6 8 6 -1.</_>
        <_>
          6 6 4 3 2.</_>
        <_>
          10 9 4 3 2.</_></rects>
      <tilted>0</tilted></_>
    <_>
      <rects>
        <_>
          6 8 9 6 -1.</_>
        <_>
          6 10 9 2 3.</_></rects>
      <tilted>0</tilted></_>
    <_>
      <rects>
        <_>
          8 1 19 15 -1.</_>
        <_>
          8 6 19 5 3.</_></rects>
      <tilted>0</tilted></_>
    <_>
      <rects>
        <_>
          8 17 7 15 -1.</_>
        <_>
          8 22 7 5 3.</_></rects>
      <tilted>0</tilted></_>
    <_>
      <rects>
        <_>
          9 1 18 15 -1.</_>
        <_>
          9 6 18 5 3.</_></rects>
      <tilted>0</tilted></_>
    <_>
      <rects>
        <_>
          9 19 2 12 -1.</_>
        <_>
          9 23 2 4 3.</_></rects>
      <tilted>0</tilted></_>
    <_>
      <rects>
        <_>
          11 4 18 24 -1.</_>
        <_>
          20 4 9 24 2.</_></rects>
      <tilted>0</tilted></_>
    <_>
      <rects>
        <_>
          12 9 16 12 -1.</_>
        <_>
          20 9 8 12 2.</_></rects>
      <tilted>0</tilted></_>
    <_>
      <rects>
        <_>
          12 12 2 1 -1.</_>
        <_>
          13 12 1 1 2.</_></rects>
      <tilted>0</tilted></_>
    <_>
      <rects>
        <_>
          13 12 6 10 -1.</_>
        <_>
          15 12 2 10 3.</_></rects>
      <tilted>0</tilted></_>
    <_>
      <rects>
        <_>
          13 24 6 4 -1.</_>
        <_>
          15 24 2 4 3.</_></rects>
      <tilted>0</tilted></_>
    <_>
      <rects>
        <_>
          14 7 18 3 -1.</_>
        <_>
          20 7 6 3 3.</_></rects>
      <tilted>0</tilted></_>
    <_>
      <rects>
        <_>
          14 12 2 10 -1.</_>
        <_>
          15 12 1 10 2.</_></rects>
      <tilted>0</tilted></_>
    <_>
      <rects>
        <_>
          14 24 4 4 -1.</_>
        <_>
          16 24 2 4 2.</_></rects>
      <tilted>0</tilted></_>
    <_>
      <rects>
        <_>
          16 18 14 8 -1.</_>
        <_>
          16 18 7 4 2.</_>
        <_>
          23 22 7 4 2.</_></rects>
      <tilted>0</tilted></_>
    <_>
      <rects>
        <_>
          17 17 7 15 -1.</_>
        <_>
          17 22 7 5 3.</_></rects>
      <tilted>0</tilted></_>
    <_>
      <rects>
        <_>
          18 0 14 29 -1.</_>
        <_>
          25 0 7 29 2.</_></rects>
      <tilted>0</tilted></_>
    <_>
      <rects>
        <_>
          18 2 10 18 -1.</_>
        <_>
          18 2 5 9 2.</_>
        <_>
          23 11 5 9 2.</_></rects>
      <tilted>0</tilted></_>
    <_>
      <rects>
        <_>
          18 6 14 5 -1.</_>
        <_>
          25 6 7 5 2.</_></rects>
      <tilted>0</tilted></_>
    <_>
      <rects>
        <_>
          19 14 10 14 -1.</_>
        <_>
          19 14 5 7 2.</_>
        <_>
          24 21 5 7 2.</_></rects>
      <tilted>0</tilted></_>
    <_>
      <rects>
        <_>
          22 11 9 10 -1.</_>
        <_>
          25 11 3 10 3.</_></rects>
      <tilted>0</tilted></_>
    <_>
      <rects>
        <_>
          22 14 3 18 -1.</_>
        <_>
          22 20 3 6 3.</_></rects>
      <tilted>0</tilted></_>
    <_>
      <rects>
        <_>
          23 13 3 18 -1.</_>
        <_>
          23 19 3 6 3.</_></rects>
      <tilted>0</tilted></_>
    <_>
      <rects>
        <_>
          23 18 6 2 -1.</_>
        <_>
          25 18 2 2 3.</_></rects>
      <tilted>0</tilted></_></features></cascade>
</opencv_storage>
